34 16
0 0.03488097275214613 0.025450431805602778 0.031070068332194237 0.023652869099156825 0.02280308390666444 0.009298977556432863 0.03148992856734291 0.02468874153194762 -0.02560751964685826 -0.006597239431249102 0.028561668429353784 0.007978614023253375 0.016445978345338758 -0.010219054915285875 -0.01712266326318224 0.002699503127739534
1 -0.012178337455605901 0.0014031541498729845 -0.014050249341425534 -1.6785275236652584e-05 0.013106630135818004 -0.007684360779091499 0.03486741055523503 -0.007627161660183994 -0.013507449752224943 -0.019262870345083616 0.0010363632281412875 -0.012269928369363862 0.01420465240536323 -0.012642833105855398 -0.016241918610173652 0.021754528241387083
2 0.01743850108708996 0.0013389853595022496 0.017600642035693604 0.033093337552918586 0.024951384073030148 -0.015903450014884468 0.03510660059988838 -0.022411047091374155 -0.01759867348182058 0.01733987089791102 -0.01571633681547463 -0.0010596522834966588 0.009573409904615426 0.03206514370245122 -0.024190900683490897 -0.029053092364416833
3 0.02799896297643384 0.014262808086508486 -0.008820426847011176 -0.0060997815956893514 0.008517359347919872 -0.004265713503182432 0.015369315783990747 0.026906227572417007 0.025557395094968547 0.019449019520997715 -0.011719028108859829 -0.007592394269256644 -0.013524058705079708 -0.01599868744961194 -0.02894171103758564 -0.013558224452094566
4 0.04042079100594332 0.01411318734842561 0.030758083406379474 -0.024455806726742402 0.031068402932875657 0.018704248364714203 0.019011695766945096 -0.029332008022973543 0.02594445370786223 0.017708055069200875 -0.002568915688772529 -0.026655426678080803 -0.018222349964862942 0.028341082878301154 0.003941761110357631 -0.03128519980051142
5 0.005877264263548265 -0.012435757317659916 0.007850743744726805 0.017217938803861365 0.015229965761009455 0.03648309527872578 0.026511028928615232 0.020117373988009758 -0.03339933074846367 -0.026952675607890997 -0.019329914544102354 0.008634062755795535 0.0111529565033487 -0.01674343895469177 -0.014247864548872285 -0.024054298928672713
6 0.03693731027782887 0.02459675027893253 -0.026536861257990256 0.0060490631007955285 0.02509595048847286 -0.0038623699603640388 0.029173407255282682 -0.021337311932203857 0.010524011847350013 0.0006316264679217413 -0.0016304138712058245 0.0104636245561727 -0.017902913973106623 0.030113514334486054 0.009132065735507627 -0.012967142231902165
7 0.0016798790573703808 0.02315680887043952 -0.013482410976572079 -0.021965067624945447 0.011692026494833032 0.003182371832775359 0.005177165592775943 0.016564066443689126 0.016892664605057558 -0.03183781808059127 0.03402865889049818 -0.028471931241974 -0.018685149810524635 0.0018051687461143782 -0.0011802176111833367 -0.013175245679354512
8 0.020273528731371098 -0.004965565328634755 0.03484729102748666 0.03171391821761337 0.019251086661530168 0.005418712714663379 -0.020977444458780144 -0.022869385497723306 -0.011876873232783674 -0.001699457647902893 0.031106354464131333 -0.01083078180722236 -0.005646303863280559 0.03970001149856089 -0.015956973591197573 -0.006861333494038093
9 0.001724037869269771 -0.020328301119752562 0.008679294206228223 -0.023856081686991052 -0.0005739576686115083 0.023103643561521267 -0.02341364645501394 0.014253177787637041 0.02468234387787159 -0.03354579602629998 0.004507874123392021 0.018567397052449513 -0.007114367930130837 -0.02084642602041293 0.004340010428939702 0.02717439361767073
10 0.007954295596976739 0.030635274924711076 0.023406610349596495 -0.018970335369325114 -0.009080721501791334 0.022518481486662183 -0.009684230032171533 0.01033624834968414 0.0010889362577984874 0.003965243495156635 0.0281382045054023 0.0006559454233204087 -0.005161230808345031 0.011113123269095833 -0.012940582575398905 -0.029425766022741055
11 0.0031012924373202723 0.0255950236335212 0.005025611693783297 0.029505383424206978 0.031249995935431076 -0.018243779196567864 -0.004501418692812924 -0.02099436902286231 0.023442343611052064 0.020152381901258485 -0.01579132706539242 0.014248923374717429 0.009760377809205712 0.02655124100315982 0.0306535322975246 0.005233800209790297
12 0.009280815294911681 0.02419987748576873 0.029040153891407256 -0.02046594949346152 0.02259366464798157 -0.010721338260715724 0.015652038611193672 -0.0137014082240654 0.02460126048762002 0.011815810038061406 0.030635139918643993 0.007236152101479256 0.018527738066088224 0.008014775930225291 -0.018361781941169896 0.025308332859612148
13 -0.016274432985212327 0.017857439740621216 -0.013517572160195753 0.004357734423595769 -0.010057664927814793 0.014992606722332012 0.011144438479676914 0.02062481344332904 -0.005409265810383366 0.008821596887702567 0.0327488128599865 0.007052019610746086 -0.000848163521754336 0.012362914943366792 0.00021680052500740662 0.015528347361597018
14 0.021789516083472748 0.018092507971323887 -0.025587699542707322 0.026567908855254556 -0.011713876559938824 -0.016097041166124607 0.031015285320998114 0.0025003869077602314 -0.027502459647801614 0.010751404461995998 -0.005726042878454755 0.00638409516047288 0.032967697169627684 0.032837971618009075 0.01038391436890672 -0.030639586170798216
15 -0.0130324236537736 -0.00590926907493719 -0.0038961335762749843 0.03260089491146905 0.008020801980662354 0.01861882471145309 0.007092097084756698 -0.00267514299230103 0.008853259055900502 0.020725856966839633 -0.01784676794680123 0.0023415381783921424 0.0009269706977657239 0.036005581227490896 -0.0018559394608002075 -0.0008611237964749889
16 0.028985318930390722 0.023210379464174508 -0.01643878176156492 -0.02108655784599668 0.014588981807766258 0.006606287061152631 -0.0123725094694054 0.023114702820386687 -0.0065752446082194375 -0.031714858227135365 0.001342956349849373 -0.013661553600345605 -0.022109202996087585 0.0022774620592494778 -0.021251897099223784 -0.0017088215938617748
17 0.020993887785908404 0.008028651038701963 -0.01592095929508601 -0.023048337867121783 0.02459814958049581 0.011082711639508197 -0.006437599448001506 -0.010934223116588183 0.009889949213648282 0.0067993760745654825 -0.020334190554483718 -0.0013670945460790378 0.014558269744401676 0.022605602125743203 -0.01226120483692903 -0.015267492160451422
18 -0.012860816269709342 0.027819761333807896 0.031030463662384888 0.02867855582650989 0.009456237832469816 0.0002662933570710967 0.01851669477276265 0.018344741606060488 0.027527072316847468 0.004288223707375306 0.00030746136745973503 -0.017148827503482837 0.01344877510040793 0.012171454789805115 0.012491121932879958 0.005630697249775303
19 -0.007700900489462181 0.01514865813698875 -0.00210432796066675 -0.02382420648043109 0.02565563571815681 0.016795117464256566 -0.004579442529244674 -0.02267302067109505 0.0029913532151337446 0.00998776354804756 0.01562073589646073 0.0140167188024315 0.03245658746126977 -0.002020190573352951 0.01396229847160036 0.008345700336411637
20 0.009005365612687617 -0.022396761161921373 -0.01559824654918659 0.025539620167096228 -0.011155880943679137 -0.0022971979224244315 -0.01454511156254267 -0.022784388004486237 -0.021862905090526037 -0.01785202129700647 0.009499144776014634 -0.0314930185746413 -0.01828776311277462 0.00025139732654482633 0.014499564187220905 0.017726476034491425
21 0.0009868917945692081 -0.017869547193677934 -0.018644212478013684 -0.006567516660147319 0.018648500829655922 -0.0024843224510204594 0.025989751313007837 -0.006077970561942773 0.0035994320799430787 -0.026922671271531456 0.03141566142555167 -0.024206857599040166 0.026853076210880428 0.02682878936255135 -0.01594356171011691 -0.02518145979138144
22 0.009472454542256564 0.012556938187631659 0.03305973197339199 -0.025573360417094217 0.017334861014102344 0.0030213850674377127 -0.009449754884035313 -0.019221255731727584 0.0015864271529641269 -0.021108937145867222 0.03253528974746084 0.004992501203473323 -0.021086042735526122 0.025448377384796578 0.01796365175537441 -0.005940316199985018
23 -0.02379927568115491 0.015354328126096942 0.020467800191524374 0.0073527139378635675 -0.0015800536860057215 0.006804554478006051 0.005319581188432457 -0.00246710438359448 0.027017262194204184 0.004866277014149725 -0.025540324024932524 -0.004250373838436972 -0.00806242304908313 -0.005803927506760308 0.011601170473465873 0.022000380175212678
24 0.004335861082947492 -0.015276558918888914 -0.000978244042761848 -0.023395312827086248 0.022986178279965793 0.029446766651856138 0.013164177297161619 0.011711379795579487 0.006494182385603164 -0.033081937874431866 -0.01635676459334722 0.0012569116079444872 0.002425657595553342 0.0017837136412487205 -0.030353689717408646 -0.020855154834487747
25 -0.0011176482501012175 0.018748863959501354 0.024753216566372548 0.005824329764418627 0.016228967418499905 0.005720573651937234 0.038007169034160355 -0.009196542782619827 -0.002970109836851582 0.0047392321099732964 0.026867348776315407 0.015981221434957497 -0.028804517969301894 0.004324660629813079 0.011226090217857872 0.0028826966224970063
26 0.0026054220536857044 -0.01186396707546781 0.02707379698928012 -0.022845231231300056 0.01762389009787363 0.002744347204984805 0.0008647357292797169 0.004490219427534532 -0.01254858277730229 -0.027829465968741255 0.017377316506152797 -0.021253924834318882 -0.007581581560070951 -0.00963827739596967 -0.022738031074993614 0.004551351984483243
27 -0.012361193690509422 -0.025779829942903565 -0.013355963105230316 -0.023348285183775776 0.0076694581571810526 0.013055604945284169 0.030864942464189873 -0.016373493241304125 0.008778196437316543 -0.02914340258397632 -0.008710986440863029 0.0017394349736741077 0.006253289878486492 -0.0046571566416223125 0.017491790428360382 -0.018334936560095792
28 -0.001084376474837126 -0.02122584106564271 -0.005972088886928102 0.0282214811960612 0.02257599301487148 0.00023063981537161583 0.02268866675855326 0.013993905605552685 -0.011532117109780452 -0.0128026753381755 0.02217616952530194 0.010755039640682551 0.013942164880569909 0.0124067141539374 0.030862801745035293 -0.010233862671308967
29 0.005689101640839082 0.019285671662329754 0.03681891186876857 0.012411856058563911 0.011695757369163236 0.014560058072184745 -0.013450030280341436 -0.02921503735106797 0.020265279154304615 -0.013510685041563653 -0.022470407839629024 0.00785478566493897 0.030028216382062017 -0.013186831876763531 0.006812130693029516 -0.006820137569688714
30 0.012956297220240073 0.030313459646656507 -0.005252015787398267 -0.015601567775744509 -0.03068652753391077 -0.000740002865887605 -0.0132401606521127 -0.02672189125679094 0.011364128205491984 -0.027308857741380737 0.009071733715194139 -0.002349044981167526 0.017087242963667187 0.0017048027778188933 -0.0001834447048863382 -0.004301387838193558
31 0.01888937034266705 -0.015417083249102561 0.030837378209129466 -0.030015095429052303 -0.023660972091352542 -0.0036599652837071973 0.021156570971721213 0.016068782363973994 -0.025061053255692554 -0.03724546423072137 -0.0010416959108524092 -0.028550156424327705 -0.008342763680596173 0.01001429874616169 -0.0022553708820828816 -0.024966632050711916
32 -0.004954852339258496 0.015983642583389565 0.03115288828840462 -0.021114356132199287 0.019204874768075787 0.031372823116090305 -0.0038390790035095876 0.016945057589433526 -0.026231519006456906 0.010372137324441592 0.03769892894492389 -0.020082007761023823 0.0020422797163095066 0.011241396651730552 -0.02029057294931521 -0.0006535748863773801
33 -0.011827351024325609 -0.0030806637378815093 -0.01105647164516321 0.02318131131636468 0.008085326131486298 0.00199635741793186 -0.014680857777711488 -0.026273591895088242 -0.011001138461078842 0.019356969529815703 0.002283050366262988 0.02440046598868231 0.017952339761325455 0.0034798897575593437 -0.0037140471163481107 0.0017996810850145852
